{"name": "embedding", "trainable": true, "batch_input_shape": [null, 64], "dtype": "float32", "input_dim": 68, "output_dim": 8, "embeddings_initializer": {"class_name": "RandomUniform", "config": {"minval": -0.05, "maxval": 0.05, "seed": null}}, "embeddings_regularizer": null, "activity_regularizer": null, "embeddings_constraint": null, "mask_zero": false, "input_length": 64}
[array([[ 5.25009155e-01,  1.21666777e+00,  9.67206895e-01,
        -2.24575663e+00,  4.66900095e-02, -2.20396376e+00,
         1.65457115e-01, -2.75520015e+00],
       [-4.21233147e-01, -2.99140736e-02, -5.04155874e-01,
        -7.02657759e-01, -5.73810875e-01,  6.94744736e-02,
        -1.12028396e+00, -1.88985813e+00],
       [-2.06534266e+00, -1.50402594e+00,  4.84327912e-01,
         1.82438803e+00, -9.26754475e-01,  2.26302552e+00,
         3.20912488e-02,  1.61637127e+00],
       [ 4.93782572e-02,  2.04376429e-01, -1.27276647e+00,
         1.37452543e+00,  8.07591751e-02, -1.15451801e+00,
        -5.02488792e-01,  1.02868788e-01],
       [-1.46459031e+00, -9.66953397e-01,  1.64790559e+00,
         1.16676223e+00,  4.46578227e-02,  1.71266592e+00,
         6.33400559e-01,  1.26379597e+00],
       [ 4.05625671e-01, -9.48034585e-01,  1.27018347e-01,
        -1.12804508e+00,  1.55957162e-01, -1.11901152e+00,
         2.82799840e-01, -9.22382414e-01],
       [-7.82055557e-01, -1.25958657e+00, -6.32764995e-01,
         1.33421421e+00,  1.11645293e+00,  8.97954404e-01,
         2.53882945e-01,  3.64291835e+00],
       [-8.87844801e-01, -1.70693898e+00,  1.94394135e+00,
         7.76691496e-01, -8.40481520e-01,  1.70288193e+00,
         2.00336397e-01,  3.33441138e-01],
       [-4.55774337e-01, -1.73803103e+00,  2.90781558e-01,
         1.59709585e+00,  3.87172788e-01,  1.09444952e+00,
         7.01847374e-01,  1.01821327e+00],
       [ 3.98357287e-02, -5.94919205e-01, -6.56108081e-01,
        -1.14855334e-01, -8.86764050e-01,  1.46246958e+00,
        -8.96996439e-01, -1.43903172e+00],
       [ 4.46579874e-01, -3.47622305e-01, -2.80996871e+00,
         3.14800262e+00,  3.59403634e+00, -1.54109550e+00,
         2.15858996e-01,  3.61139345e+00],
       [-1.28107011e+00, -1.35434020e+00,  1.37358117e+00,
         7.65046239e-01, -1.84059635e-01,  1.54503274e+00,
         7.58938551e-01,  2.47321463e+00],
       [-1.97555518e+00, -9.61902916e-01,  1.93303478e+00,
         6.65896475e-01, -7.01669872e-01,  2.24433565e+00,
         5.42096257e-01,  1.23035170e-01],
       [-1.45994842e+00, -1.53565216e+00,  1.46106064e+00,
         1.43232375e-01, -4.24830884e-01,  1.09522784e+00,
         1.28677893e+00,  2.02225995e+00],
       [-1.30017841e+00, -1.19133787e-02,  3.45778167e-01,
        -6.42419308e-02,  7.22396653e-03, -5.95018029e-01,
        -6.37985170e-01, -7.94695020e-01],
       [-8.45548093e-01, -8.22092414e-01,  2.36561045e-01,
        -7.24040121e-02, -2.51083225e-01, -1.26274735e-01,
        -7.67176598e-02, -1.20826006e+00],
       [-4.12068933e-01, -1.25221777e+00,  1.64255932e-01,
        -3.89475763e-01, -1.21175086e+00,  1.06239176e+00,
         1.49126127e-01,  1.95291519e+00],
       [-1.60820866e+00, -2.52903605e+00, -8.95766199e-01,
         1.45497870e+00, -5.69330931e-01,  3.83809781e+00,
         8.02952886e-01,  9.71761894e+00],
       [ 8.57841671e-02, -3.52921128e-01,  6.81249380e-01,
         6.56980276e-01,  6.56709135e-01,  6.16319120e-01,
        -3.85660172e-01, -8.39567959e-01],
       [ 5.44618487e-01, -4.89400029e-01,  1.06267035e+00,
        -2.58312169e-02,  4.97745335e-01,  9.17540416e-02,
        -1.88240826e-01, -6.11138821e-01],
       [-1.27421236e+00, -6.79623008e-01,  2.50198627e+00,
         7.21102953e-01,  3.23868394e-02,  2.42734313e+00,
         2.09787250e-01, -3.79416823e-01],
       [-8.20354939e-01,  2.43540093e-01, -1.71892011e+00,
        -6.24734282e-01, -2.04961777e-01, -7.27392495e-01,
        -7.07980037e-01,  1.94760710e-01],
       [-1.50405729e+00, -1.71805441e+00,  2.29833007e+00,
         1.92823493e+00, -2.38567799e-01,  8.72459948e-01,
        -1.87925845e-01,  1.90740180e+00],
       [-1.52229393e+00, -1.59336257e+00,  4.68736321e-01,
         2.31886673e+00,  7.77543426e-01,  8.60972285e-01,
         7.15883553e-01,  2.63499308e+00],
       [-2.26484108e+00, -1.93460786e+00, -5.56297898e-01,
         1.34061551e+00, -2.10910749e+00,  2.82537723e+00,
         6.14216745e-01,  5.67929649e+00],
       [ 7.97093809e-01, -3.30534250e-01, -4.53496277e-01,
         1.21698319e-03,  3.96451384e-01, -1.33230126e+00,
        -9.36636627e-01,  2.00305557e+00],
       [-9.43602800e-01, -1.81184733e+00,  1.38846004e+00,
        -3.83342803e-01,  1.58447397e+00, -9.86664519e-02,
         2.15393901e+00,  2.53270888e+00],
       [-1.48999822e+00,  1.66314507e+00,  2.73744726e+00,
        -3.45908499e+00, -1.06883931e+00,  3.06755877e+00,
        -1.02330053e+00, -4.38632631e+00],
       [ 1.16490972e+00, -2.39479423e+00, -3.49409044e-01,
         5.93698919e-01, -1.33124161e+00, -3.36295223e+00,
         1.11377728e+00,  1.93521667e+00],
       [ 1.16729474e+00, -2.05757689e+00, -6.61485672e-01,
         4.96399403e-01, -9.23911214e-01, -3.42852640e+00,
         1.05619824e+00,  1.90060294e+00],
       [ 1.44656348e+00, -2.11196637e+00, -1.32853210e+00,
         7.98199356e-01, -4.58853394e-01, -4.05313063e+00,
         9.51314330e-01,  2.85995269e+00],
       [ 9.98296916e-01, -2.12264132e+00, -9.52560842e-01,
         1.06400847e+00, -3.53366464e-01, -3.33535242e+00,
         1.17471313e+00,  2.56334805e+00],
       [ 1.42285192e+00, -2.05794811e+00, -1.47360957e+00,
         6.10087931e-01, -3.70495141e-01, -4.13791180e+00,
         1.05453455e+00,  3.34552479e+00],
       [ 1.40807366e+00, -2.42723203e+00, -1.35908282e+00,
         7.07755685e-01, -7.13256001e-01, -4.13214493e+00,
         1.20338607e+00,  2.98485184e+00],
       [ 1.47877598e+00, -2.17161441e+00, -1.46472347e+00,
         7.61891901e-01, -4.34842020e-01, -4.22160625e+00,
         1.00941169e+00,  2.83407331e+00],
       [ 1.77927828e+00, -2.26371574e+00, -1.30493665e+00,
         1.03072286e+00, -4.26085979e-01, -4.12658215e+00,
         9.48699653e-01,  2.44696569e+00],
       [ 1.35116613e+00, -1.96652853e+00, -4.92564440e-01,
         4.24135506e-01, -1.02063870e+00, -3.56254363e+00,
         9.11342025e-01,  5.42696714e-01],
       [ 3.68370079e-02, -4.52114455e-02, -3.31429020e-02,
        -3.81095633e-02,  1.12718232e-02, -2.29890831e-02,
         2.79763229e-02,  3.46488990e-02],
       [-3.33078392e-02, -2.21077558e-02,  2.10104473e-02,
         3.59357037e-02,  1.39068030e-02, -1.46027915e-02,
         2.30448283e-02, -2.95572169e-02],
       [ 1.85715830e+00, -3.83746594e-01,  1.05089772e+00,
        -2.22258997e+00,  2.49598339e-01, -1.00671375e+00,
         7.83593893e-01, -1.40521467e+00],
       [-1.82735436e-02, -4.11105156e-03, -3.03896554e-02,
         2.71840133e-02,  4.27125767e-03,  3.91642489e-02,
         3.81080769e-02,  1.04098096e-02],
       [-1.84880607e-02, -1.47156827e-02,  1.74556635e-02,
         3.30848359e-02,  2.30077244e-02,  1.19746812e-02,
         2.11299099e-02,  5.04032522e-03],
       [-1.49937719e-03,  4.28720228e-02,  3.11856978e-02,
         4.95604984e-02,  2.29513645e-03, -4.95350026e-02,
        -3.53017226e-02, -1.71416029e-02],
       [ 3.00501324e-02,  2.26318836e-03,  2.07067020e-02,
         3.57359760e-02, -4.14116383e-02,  1.73280872e-02,
        -8.96438211e-03,  2.82700323e-02],
       [ 3.93718593e-02, -4.35115807e-02, -3.89221534e-02,
        -3.58442664e-02,  7.15007633e-03,  3.54613923e-02,
         1.73871778e-02, -2.47192141e-02],
       [ 2.54326575e-02,  1.61289088e-02, -1.94462072e-02,
        -4.17816862e-02,  4.85794656e-02,  4.30365317e-02,
        -4.83736657e-02, -3.77044082e-02],
       [ 1.56456865e-02, -4.91831563e-02, -2.82356739e-02,
        -2.57720109e-02, -4.62014787e-02,  4.10654657e-02,
        -9.75998491e-03, -4.49945442e-02],
       [-4.09133546e-02, -4.36406508e-02,  1.84132792e-02,
         3.01566236e-02,  3.55070122e-02,  3.41345184e-02,
        -3.50598693e-02, -4.36746590e-02],
       [ 3.33659910e-02,  4.95293178e-02,  4.91573550e-02,
        -2.11239941e-02, -5.90581819e-03, -3.80716547e-02,
         4.64494564e-02, -3.95925865e-02],
       [ 3.87215875e-02,  2.03336738e-02,  1.40164010e-02,
         1.01367943e-02,  2.02921070e-02,  7.12316111e-03,
        -1.68863758e-02, -8.58875364e-03],
       [ 3.22530307e-02, -4.48704734e-02, -4.46424261e-02,
        -5.30146435e-03, -2.34679338e-02, -1.64678469e-02,
         1.97585486e-02,  3.66410948e-02],
       [ 1.81910284e-02,  3.83281000e-02,  2.58749761e-02,
         3.28584798e-02, -3.60748991e-02, -2.15042587e-02,
         4.86443192e-03, -3.52864265e-02],
       [-2.59041786e-02,  3.82300466e-03, -2.24640220e-03,
        -1.86673403e-02, -4.28631082e-02, -1.61257610e-02,
         2.38676332e-02,  4.76184003e-02],
       [ 1.61751173e-02, -3.60769033e-02,  2.25175954e-02,
         2.35639326e-02, -9.45914537e-04, -1.38629563e-02,
        -3.62388045e-03, -3.59300524e-03],
       [-2.31156703e-02,  4.92227711e-02,  4.46991213e-02,
        -3.43722478e-02,  1.65689625e-02, -4.09182906e-02,
         2.33086199e-03, -1.81857236e-02],
       [-2.87064556e-02,  1.76883824e-02,  2.84176208e-02,
         2.55340375e-02, -3.88393775e-02, -1.88512560e-02,
        -1.48264170e-02, -2.95534134e-02],
       [ 3.30725797e-02,  2.02152617e-02, -2.23924052e-02,
        -2.15709209e-02, -2.68262867e-02, -4.50649373e-02,
        -4.75172512e-02,  2.44725011e-02],
       [-1.45224109e-02,  4.80596758e-02,  3.90581749e-02,
        -2.98564788e-02, -4.25638333e-02,  2.53478400e-02,
         3.58696245e-02,  1.64510049e-02],
       [ 2.09066384e-02,  3.05948295e-02, -1.72588341e-02,
        -5.15330955e-03,  5.19188493e-03, -3.42144817e-03,
         4.66335155e-02,  1.02751143e-02],
       [-3.75599377e-02,  4.29045819e-02,  4.91770543e-02,
        -2.99007818e-03,  3.64983119e-02, -1.62056796e-02,
        -4.20482531e-02, -2.61205789e-02],
       [-4.26581390e-02,  4.59152572e-02, -2.23758947e-02,
         1.43903494e-03, -4.37466875e-02,  3.63242067e-02,
        -4.31609750e-02,  6.56533986e-04],
       [ 6.32661581e-03, -6.03977591e-03, -2.00852752e-02,
         4.88686003e-02, -3.71663198e-02, -4.60381433e-03,
         3.78180034e-02, -2.40698345e-02],
       [-3.98624316e-02, -1.71231404e-02,  1.03779063e-02,
         1.07187033e-03,  2.81487443e-02, -2.29298119e-02,
        -1.78880468e-02,  3.77859958e-02],
       [ 4.86714579e-02, -2.14954019e-02, -6.77216798e-04,
         5.71024418e-03,  4.79621328e-02,  5.70063666e-03,
         2.20149495e-02,  4.77214120e-02],
       [ 9.04321671e-03, -3.29012796e-03, -9.11473110e-03,
        -2.08949931e-02, -1.40565410e-02,  2.17670202e-03,
         3.13364901e-02,  2.42635347e-02],
       [-1.79531229e+00,  2.00003445e-01,  8.39582825e+00,
        -6.28151941e+00, -6.59031105e+00,  6.90289068e+00,
         5.55217862e-01, -1.43215075e+01],
       [ 4.38146666e-03, -9.33202356e-03, -4.84921336e-02,
         1.29643343e-02, -4.74360585e-02, -4.79116701e-02,
         4.32991050e-02,  4.63600866e-02],
       [-4.97135296e-02, -1.84863806e-02,  4.83251475e-02,
         4.74606641e-02, -3.80800143e-02,  2.86728404e-02,
         1.65841468e-02, -3.41673270e-02]], dtype=float32)]
{"name": "simple_rnn", "trainable": true, "dtype": "float32", "return_sequences": false, "return_state": false, "go_backwards": false, "stateful": false, "unroll": false, "time_major": false, "units": 8, "activation": "tanh", "use_bias": true, "kernel_initializer": {"class_name": "GlorotUniform", "config": {"seed": null}}, "recurrent_initializer": {"class_name": "Orthogonal", "config": {"gain": 1.0, "seed": null}}, "bias_initializer": {"class_name": "Zeros", "config": {}}, "kernel_regularizer": null, "recurrent_regularizer": null, "bias_regularizer": null, "activity_regularizer": null, "kernel_constraint": null, "recurrent_constraint": null, "bias_constraint": null, "dropout": 0.0, "recurrent_dropout": 0.0}
[array([[ 0.26968256,  0.29028854, -0.35043335, -2.372352  , -0.02853556,
         0.04723438,  0.3072429 ,  0.62839997],
       [ 0.01349382,  0.5171548 , -0.6985963 , -1.0433857 , -0.4650105 ,
        -0.00577325, -0.21039866,  0.884758  ],
       [ 0.24581866,  0.6027388 ,  0.12498806, -0.66805863, -0.10629538,
         0.48146394, -0.02435052, -0.40660778],
       [-0.41537097,  0.26650372, -0.04294477, -1.1508    , -0.19068724,
        -0.6824536 , -0.07311754,  0.4631846 ],
       [ 0.25498167, -0.34197363,  0.07561693,  0.7963193 ,  0.24170151,
        -0.46727344,  0.01089094, -0.74925804],
       [ 0.18858843, -0.20235501, -0.6934007 , -0.4185904 ,  0.03583412,
         0.14001055,  0.21993762,  0.08413284],
       [-0.0307882 , -0.4732031 , -0.5089621 , -2.1386786 , -0.19339575,
        -0.65017116, -0.11657517,  1.1710523 ],
       [ 0.01735575,  0.3937708 ,  0.01251046, -0.463026  , -0.0398945 ,
         0.31248033,  0.03012891,  0.07042218]], dtype=float32), array([[-0.5014692 , -0.7688299 ,  1.5791669 ,  1.2774563 , -0.07398667,
        -0.675655  , -0.20512584,  1.0127099 ],
       [-0.43610838,  0.34814322, -0.18444382, -0.23462763,  0.07798226,
         0.1661716 , -0.15543632,  0.95769185],
       [-0.07075969, -0.49058908,  0.13110086, -0.28817356, -0.02568582,
         0.69379777,  0.29457596,  0.00904427],
       [ 0.01390795, -0.6453432 ,  0.2346079 ,  0.18571301,  0.07588714,
        -0.38433298, -0.02566381,  0.709691  ],
       [-1.0054294 ,  0.2978894 ,  0.97673064,  1.2131996 ,  0.5609923 ,
        -1.6602036 , -0.8013617 ,  0.49223372],
       [-0.12596679, -0.14694606,  0.5385657 , -0.7936047 ,  0.22036399,
        -0.31663033,  0.00254336, -0.5308663 ],
       [ 0.11392421, -0.47989598, -1.5704309 , -1.5592015 , -0.69291455,
         0.6250277 ,  0.2705622 ,  0.6066227 ],
       [-0.38153058, -0.6197033 ,  0.81305265, -1.8924435 ,  0.02699041,
        -1.1871191 , -0.28415492,  1.162995  ]], dtype=float32), array([-0.07460289, -0.12328681, -0.5762337 , -0.6489209 , -0.10465904,
       -0.2198817 ,  0.01062127,  1.1986339 ], dtype=float32)]
{"name": "dropout", "trainable": true, "dtype": "float32", "rate": 0.4, "noise_shape": null, "seed": null}
[]
{"name": "dense", "trainable": true, "dtype": "float32", "units": 1, "activation": "linear", "use_bias": true, "kernel_initializer": {"class_name": "GlorotUniform", "config": {"seed": null}}, "bias_initializer": {"class_name": "Zeros", "config": {}}, "kernel_regularizer": null, "bias_regularizer": null, "activity_regularizer": null, "kernel_constraint": null, "bias_constraint": null}
[array([[-0.41242987],
       [-0.00679244],
       [ 0.36462107],
       [-0.00644945],
       [ 0.40352362],
       [-0.32610923],
       [-0.6379615 ],
       [ 0.36282372]], dtype=float32), array([0.523359], dtype=float32)]
{"name": "activation", "trainable": true, "dtype": "float32", "activation": "relu"}
[]
