{"name": "embedding_1", "trainable": true, "batch_input_shape": [null, 64], "dtype": "float32", "input_dim": 68, "output_dim": 8, "embeddings_initializer": {"class_name": "RandomUniform", "config": {"minval": -0.05, "maxval": 0.05, "seed": null}}, "embeddings_regularizer": null, "activity_regularizer": null, "embeddings_constraint": null, "mask_zero": false, "input_length": 64}
[array([[ 1.56052577e+00,  2.31891852e-02, -5.42684376e-01,
        -1.00280620e-01,  1.02973664e+00,  1.86275735e-01,
         1.09338552e-01, -2.67573535e-01],
       [-1.09218331e-02,  3.39891225e-01, -1.39277130e-01,
         7.89115578e-02,  2.19829679e-01, -3.96599025e-01,
         7.35859871e-01,  4.82169420e-01],
       [-1.73349474e-02, -6.53747559e-01, -3.11939788e+00,
         8.78740013e-01,  4.18520540e-01,  1.45447720e-02,
        -5.28949738e-01,  3.39750600e+00],
       [-1.07264757e+00,  4.31593269e-01, -5.17783403e-01,
         1.89581752e+00, -3.42315018e-01, -8.60139579e-02,
        -1.15267718e+00, -6.28083050e-01],
       [-2.56050205e+00,  1.51610691e-02, -1.06597781e-01,
         1.51224923e+00,  1.05620874e-02, -6.83619320e-01,
        -9.28112566e-01, -5.26460886e-01],
       [-2.57526219e-01,  3.36565614e-01,  3.31139445e-01,
        -3.28426510e-01,  1.74568798e-02, -6.88216507e-01,
         4.80300069e-01, -1.18566774e-01],
       [-3.17458677e+00,  5.07571757e-01,  5.61045632e-02,
         1.13551974e+00, -1.14031994e+00, -2.08346635e-01,
        -8.40082765e-01, -6.40767574e-01],
       [-2.87453485e+00,  3.80544543e-01, -5.76610565e-01,
         1.47394979e+00, -7.93991566e-01, -9.26874503e-02,
        -1.38154852e+00, -8.37756917e-02],
       [-2.81468987e+00,  2.46042490e-01,  3.50546032e-01,
         2.05464697e+00,  6.53145695e-03, -2.82452077e-01,
        -1.67538166e+00, -7.78700262e-02],
       [-5.07167459e-01,  2.41827041e-01,  2.34330803e-01,
        -2.92029083e-01, -9.19377089e-01,  5.41474342e-01,
         4.96272743e-01, -5.44574372e-02],
       [-3.87316442e+00,  4.98669267e-01, -6.70858920e-01,
         2.77191067e+00, -1.47032663e-01, -1.03399646e+00,
        -2.14369702e+00,  2.78763205e-01],
       [-4.57943869e+00,  4.43270691e-02,  3.13437641e-01,
         2.38803530e+00, -6.02929652e-01, -4.93142486e-01,
        -1.94872832e+00, -2.95225978e-01],
       [-3.86065173e+00, -6.66765451e-01,  1.79009044e+00,
         6.85197055e-01, -1.64462365e-02, -1.22339439e+00,
         9.73341405e-01, -2.64192611e-01],
       [-3.51491261e+00,  5.94366014e-01, -7.19861448e-01,
         5.73641419e-01, -6.37558222e-01, -9.39961791e-01,
         3.89422141e-02,  4.95033801e-01],
       [-1.32300496e+00,  6.43667504e-02,  7.19703794e-01,
         4.62856948e-01, -5.77616811e-01, -1.27499878e+00,
         1.22084522e+00, -6.47754729e-01],
       [-3.64849329e-01,  2.20803529e-01,  2.29878634e-01,
        -2.39259854e-01,  2.79625624e-01, -5.64841688e-01,
         1.28981316e+00,  1.69001043e-01],
       [-3.11279917e+00,  3.67797971e-01,  3.57891470e-01,
         1.26134181e+00, -2.94414043e-01, -9.19581950e-01,
        -1.81461585e+00, -5.96019447e-01],
       [-5.59290218e+00,  8.07807505e-01, -1.50552571e+00,
         3.60072184e+00, -8.50644946e-01, -1.28478932e+00,
        -2.69786882e+00,  6.58196867e-01],
       [-1.63048303e+00,  1.83270589e-01, -4.34939861e-01,
         9.30124402e-01, -1.11289471e-01, -1.00057319e-01,
        -8.64145041e-01,  1.11119583e-01],
       [-1.44602513e+00,  2.11984456e-01, -2.37142131e-01,
         4.28705245e-01,  4.42696393e-01, -8.07741642e-01,
        -4.97239202e-01, -4.84200679e-02],
       [-2.69556594e+00, -8.74911621e-02,  2.57825595e-03,
         9.59504366e-01,  2.62227863e-01, -8.98208201e-01,
        -2.12222770e-01, -1.65383801e-01],
       [-5.45727551e-01,  8.04886460e-01, -6.86348200e-01,
         3.54740828e-01, -6.26607358e-01, -1.36899620e-01,
         3.65212187e-02, -1.65553372e-02],
       [-3.18466878e+00,  5.37826538e-01, -2.92834103e-01,
         1.57885301e+00, -6.51514173e-01, -3.81341219e-01,
        -1.75905848e+00, -8.62440109e-01],
       [-3.54529667e+00,  5.12277782e-01, -5.69950998e-01,
         2.10686159e+00, -7.51134932e-01, -6.33694112e-01,
        -1.28972673e+00, -1.48246735e-01],
       [-4.19674253e+00,  3.58874887e-01, -1.40357924e+00,
         2.89753580e+00, -5.32087147e-01, -7.77698874e-01,
        -1.84690320e+00,  4.42363769e-01],
       [-1.80774820e+00,  5.77280521e-01, -9.56432939e-01,
         1.31860614e+00,  8.34573582e-02, -9.89109337e-01,
        -1.00564206e+00,  5.12233913e-01],
       [-2.31194019e+00,  3.17691445e-01,  5.24863958e-01,
         1.51945496e+00, -3.30751330e-01, -5.77109873e-01,
        -1.44540703e+00, -6.49166107e-01],
       [ 1.10291839e+00, -3.84076357e-01, -6.53691173e-01,
        -8.29967797e-01,  3.13850069e+00, -4.65387315e-01,
         3.43686849e-01,  6.36125863e-01],
       [-1.14586282e+00,  6.36528969e-01, -4.31593239e-01,
         7.00191617e-01,  6.71739101e-01, -1.10840130e+00,
        -1.17577422e+00, -2.95523163e-02],
       [-1.34574389e+00,  5.21660745e-01, -3.59647274e-01,
         9.05165672e-01,  7.39660561e-01, -1.30078781e+00,
        -9.51370597e-01,  8.71805325e-02],
       [-1.79413724e+00,  6.32236183e-01, -1.74383387e-01,
         1.36516750e+00,  6.29582524e-01, -1.74043393e+00,
        -1.58910286e+00,  2.10107312e-01],
       [-2.17347169e+00,  5.63799918e-01, -6.21854782e-01,
         1.80725777e+00,  6.52210891e-01, -1.15458012e+00,
        -1.13346148e+00,  3.31150204e-01],
       [-1.60255647e+00,  6.94553137e-01, -2.73529321e-01,
         1.14488208e+00,  7.39933193e-01, -1.84712589e+00,
        -1.61479151e+00,  3.05305958e-01],
       [-1.13014650e+00,  8.54514480e-01, -2.12871209e-01,
         1.32545376e+00,  9.34869647e-01, -1.76208806e+00,
        -1.83326745e+00,  2.78233647e-01],
       [-1.99861133e+00,  6.35883391e-01, -3.30431908e-01,
         1.31361234e+00,  1.01299727e+00, -1.87834752e+00,
        -1.47356606e+00,  3.21853220e-01],
       [-4.86181408e-01,  7.33709991e-01, -3.27235997e-01,
         8.19778621e-01,  1.12368762e+00, -1.65852296e+00,
        -1.63506949e+00,  4.08748031e-01],
       [-1.04777336e+00,  4.54969168e-01, -7.64108956e-01,
         5.07880867e-01,  8.74192655e-01, -1.24272263e+00,
        -8.76707137e-01,  5.95858395e-01],
       [-4.73338254e-02, -2.83162724e-02,  6.51083887e-04,
        -1.95203908e-02,  5.17798588e-03, -1.72291398e-02,
        -1.71243325e-02, -1.35503411e-02],
       [-3.80711444e-02, -1.14043355e-02, -1.68730617e-02,
         1.60557032e-03, -2.12872028e-03, -1.59549117e-02,
        -2.45507360e-02,  3.95802893e-02],
       [-1.18708861e+00,  7.80146003e-01,  2.71364987e-01,
         6.45148396e-01,  8.34523857e-01, -1.55516967e-01,
        -2.81119406e-01, -1.20899463e+00],
       [ 1.91369690e-02, -1.65158287e-02,  3.31747867e-02,
         9.54417139e-03,  9.86983627e-03, -1.22343786e-02,
        -1.61628015e-02, -1.22054443e-02],
       [-2.80180704e-02,  3.26828025e-02, -1.46674141e-02,
         4.84745763e-02, -3.06204092e-02,  9.54966620e-03,
        -4.75168005e-02,  4.37979959e-02],
       [-1.16388686e-02, -4.44202796e-02,  4.11074497e-02,
        -9.30549949e-03,  4.06641476e-02,  4.98198159e-02,
        -1.40499957e-02,  4.79676239e-02],
       [-4.71317060e-02, -1.53595433e-02,  1.00938305e-02,
        -1.39323846e-02,  3.51182111e-02,  1.43867731e-03,
        -4.39124964e-02, -3.94529104e-03],
       [ 7.94277340e-03,  4.72195856e-02,  3.59893925e-02,
        -3.08936834e-03,  1.75312646e-02, -2.89837271e-03,
         4.40483429e-02, -7.24471733e-03],
       [-8.04101303e-03,  1.06051192e-02, -1.69099346e-02,
         4.39076498e-03, -3.81802209e-02,  2.75849812e-02,
        -7.57798553e-05, -2.44253874e-02],
       [ 4.79905717e-02,  2.79025696e-02,  3.96962278e-02,
         2.33091004e-02,  1.05420463e-02, -3.00656557e-02,
        -3.22757587e-02,  3.64589132e-02],
       [ 4.65049036e-02, -2.74230596e-02,  4.60467823e-02,
        -8.68623331e-03,  4.82998751e-02, -3.82035747e-02,
         3.42805497e-02,  2.06859037e-03],
       [ 4.65613119e-02,  7.82158226e-03,  3.95385288e-02,
         7.64900446e-03, -1.90811884e-02, -3.63812558e-02,
         2.55159028e-02,  2.50648893e-02],
       [-3.84237766e-02, -9.08496231e-03,  1.82390101e-02,
        -3.89582738e-02, -3.22787836e-03, -4.56024185e-02,
         2.07150616e-02,  2.53011249e-02],
       [ 8.47474486e-03,  1.86451711e-02,  4.53157313e-02,
         9.62452963e-03,  2.86086537e-02, -3.91311571e-03,
         4.65303324e-02,  1.11483447e-02],
       [-2.28586681e-02, -4.40772176e-02,  3.88053544e-02,
        -4.56075445e-02, -3.77283916e-02, -4.31802385e-02,
        -4.61594723e-02, -4.93201986e-02],
       [-1.27302520e-02,  1.46616139e-02, -2.24983823e-02,
        -3.17897350e-02, -4.20718193e-02, -2.73929965e-02,
         4.82635014e-02, -3.95596251e-02],
       [ 2.65654363e-02,  3.91108729e-02,  2.45561935e-02,
         1.70775764e-02,  3.09543647e-02,  4.85780351e-02,
        -2.50038747e-02, -3.30097675e-02],
       [-1.46358088e-03, -2.62649413e-02, -4.83804718e-02,
         2.51069106e-02,  3.13840844e-02, -2.46089697e-02,
        -3.92717719e-02, -4.69406247e-02],
       [ 9.34771448e-03, -3.77707481e-02, -2.03348044e-02,
         3.06010246e-04, -4.24704552e-02,  4.71574701e-02,
         1.12166256e-03, -2.78087258e-02],
       [ 3.60075571e-02,  2.98111551e-02,  4.03996557e-03,
        -1.22113228e-02, -4.55448516e-02,  4.09183167e-02,
         7.65910000e-03, -3.31486240e-02],
       [-1.46560073e-02, -3.43399197e-02,  1.18150562e-03,
        -2.12557204e-02, -4.60042022e-02,  1.89232118e-02,
         1.88397504e-02,  1.93165056e-02],
       [ 4.65923548e-03, -1.35527141e-02,  1.20279677e-02,
        -4.06240299e-03,  2.93108560e-02,  4.46780063e-02,
        -4.24907915e-02,  2.02343613e-03],
       [ 4.26895879e-02,  6.67899847e-03, -6.44350052e-03,
        -1.50155798e-02,  4.71402146e-02, -4.48594689e-02,
        -1.59310102e-02, -4.27441373e-02],
       [-8.99633020e-03, -3.90913971e-02,  2.93979757e-02,
        -2.10120808e-02,  1.49214752e-02,  1.77969821e-02,
         7.86947086e-03,  2.39926241e-02],
       [ 3.75169180e-02,  1.16419084e-02,  8.37152079e-03,
         6.18398190e-07,  9.43524763e-03, -1.26398690e-02,
        -3.89243290e-03, -2.67646071e-02],
       [-2.61470918e-02, -2.15209611e-02,  1.60577409e-02,
        -4.90922332e-02,  1.53787471e-02,  1.57882012e-02,
        -2.70708930e-02,  4.55535166e-02],
       [ 4.91941087e-02, -2.93174386e-02,  3.95917334e-02,
         3.38409878e-02,  4.80940454e-02,  2.33278982e-02,
        -8.33295286e-04,  3.96227837e-03],
       [ 7.89580494e-03,  4.75307740e-02,  1.53416432e-02,
        -4.74435352e-02,  2.26821564e-02, -9.74845141e-04,
         3.02750356e-02, -3.73598114e-02],
       [ 4.73056698e+00, -1.97203469e+00,  1.62962818e+00,
        -2.14273906e+00,  3.46011376e+00,  1.49405277e+00,
         1.01139319e+00, -9.23150003e-01],
       [ 1.78911798e-02, -6.19693846e-03,  2.77632214e-02,
         1.74630545e-02, -1.81546584e-02, -2.72507668e-02,
         2.48403475e-03, -4.56562638e-02],
       [ 4.48007323e-02, -3.54179367e-02,  8.08130950e-04,
        -1.71942636e-03, -1.25207081e-02,  4.63885106e-02,
        -3.63124385e-02,  2.18681730e-02]], dtype=float32)]
{"name": "simple_rnn_1", "trainable": true, "dtype": "float32", "return_sequences": false, "return_state": false, "go_backwards": false, "stateful": false, "unroll": false, "time_major": false, "units": 8, "activation": "tanh", "use_bias": true, "kernel_initializer": {"class_name": "GlorotUniform", "config": {"seed": null}}, "recurrent_initializer": {"class_name": "Orthogonal", "config": {"gain": 1.0, "seed": null}}, "bias_initializer": {"class_name": "Zeros", "config": {}}, "kernel_regularizer": null, "recurrent_regularizer": null, "bias_regularizer": null, "activity_regularizer": null, "kernel_constraint": null, "recurrent_constraint": null, "bias_constraint": null, "dropout": 0.0, "recurrent_dropout": 0.0}
[array([[-0.434415  , -0.00286872, -0.24655086,  0.2892191 , -0.21473542,
        -0.17232281,  0.42629838,  0.21688102],
       [-0.82840174,  0.23439619, -0.71314   , -1.5335841 , -0.7582687 ,
        -1.5243783 ,  0.02445189,  1.222328  ],
       [ 0.7123295 , -0.1709592 ,  0.19176078, -0.07773047,  0.25366426,
        -0.94610494,  0.40459728,  0.6866047 ],
       [-0.8864305 ,  0.10664356, -0.31993014, -0.40231928, -0.71751374,
         0.50578785,  0.45163286,  0.46437383],
       [-0.36675107,  0.10826212, -0.07649284, -0.66995084,  0.45524985,
         0.27097172, -0.5505329 ,  0.5926233 ],
       [ 0.6774391 , -0.21900623, -0.19823486, -0.7530413 , -0.5766974 ,
        -0.23191264, -0.22835414,  0.47585905],
       [-0.7067799 ,  0.15022814,  0.33728802, -0.6741339 , -0.8169604 ,
         0.17908427, -0.00904424,  0.2538986 ],
       [ 1.0840725 , -0.01138246, -0.04731313,  1.0469371 , -0.00736728,
        -0.60914487,  0.27285886,  0.63505006]], dtype=float32), array([[-0.9878879 ,  0.505361  , -0.18587431, -0.1422689 ,  0.3787394 ,
         0.77683306, -0.48002043,  0.13833123],
       [-1.9060816 ,  0.99615645, -0.7990317 , -0.9730291 , -0.3490588 ,
        -0.55137473,  0.46823695, -0.954784  ],
       [-0.03596488,  0.09518965,  0.1364587 ,  0.55493695,  0.6992777 ,
        -0.25668898,  0.13718455,  1.2379749 ],
       [ 0.59441763, -0.5574186 ,  0.66061145, -0.15554108,  0.38555965,
        -0.5381051 ,  0.15056846, -0.49880403],
       [-0.9870838 ,  0.2669134 , -0.32061568, -0.28499192, -1.1232035 ,
        -0.17809045, -0.17426358, -0.80267954],
       [ 0.08254267,  0.09216191,  0.8480637 ,  0.49329543,  1.2051934 ,
         0.54643357, -0.92435354, -1.1506625 ],
       [-0.7009558 ,  0.66279596,  0.18214361,  0.17797913,  0.1291811 ,
        -0.5993866 , -0.5200475 , -0.18986015],
       [ 0.4168125 , -0.18767807, -0.08684407,  0.38425383,  0.1602598 ,
         0.310593  , -0.20304318,  0.985372  ]], dtype=float32), array([-0.03374966, -0.255562  ,  0.04728099,  0.28426984,  0.13419765,
       -0.64612055,  0.53932095,  0.20507278], dtype=float32)]
{"name": "dropout_1", "trainable": true, "dtype": "float32", "rate": 0.4, "noise_shape": null, "seed": null}
[]
{"name": "dense_1", "trainable": true, "dtype": "float32", "units": 1, "activation": "linear", "use_bias": true, "kernel_initializer": {"class_name": "GlorotUniform", "config": {"seed": null}}, "bias_initializer": {"class_name": "Zeros", "config": {}}, "kernel_regularizer": null, "bias_regularizer": null, "activity_regularizer": null, "kernel_constraint": null, "bias_constraint": null}
[array([[-1.1942699 ],
       [ 1.1809567 ],
       [-1.2538894 ],
       [-1.6730486 ],
       [-1.2684089 ],
       [-0.82314044],
       [ 1.2282411 ],
       [ 0.03559842]], dtype=float32), array([0.13025162], dtype=float32)]
{"name": "activation_1", "trainable": true, "dtype": "float32", "activation": "sigmoid"}
[]
